tree
version=v4
num_class=1
num_tree_per_iteration=1
label_index=0
max_feature_idx=17
objective=lambdarank
feature_names=Column_0 Column_1 Column_2 Column_3 Column_4 Column_5 Column_6 Column_7 Column_8 Column_9 Column_10 Column_11 Column_12 Column_13 Column_14 Column_15 Column_16 Column_17
feature_infos=[0:666.66732391331118] [0:0.65111931248871247] [0:0.5] [0:0.88235294117647056] none none none none [0:1] [0:1] [0:1] [0:1] [-9:4] none none [4:1384] [0.0074999999999999997:0.16400000000000001] [1:7]
tree_sizes=3454 3462 3432 3448 3469 3456 3447 3464 3453 3463 3453 3461 3451

Tree=0
num_leaves=31
num_cat=0
split_feature=1 1 1 9 15 0 17 1 9 16 16 16 17 17 16 16 3 3 17 0 16 16 15 9 16 16 9 0 16 15
split_gain=2411.41 229.504 157.603 48.9564 36.1106 32.0981 24.4137 16.7601 16.1949 16.075 11.9616 11.7642 10.1923 10.1536 9.80128 19.2187 8.11401 7.92313 7.49188 7.47292 7.12486 6.49255 7.57204 6.02048 5.93651 6.38638 5.83896 5.58785 5.22169 4.65353
threshold=0.040887364338401455 0.02150993617306125 0.065972584092967287 1.0000000180025095e-35 12.500000000000002 18.249079444211777 1.5000000000000002 0.091794118887028542 0.22500000000000003 0.081250000000000017 0.086750000000000008 0.090750000000000011 2.5000000000000004 2.5000000000000004 0.14325000000000002 0.14375000000000002 0.42724867724867727 0.26624472573839669 3.5000000000000004 80.972471240187289 0.043250000000000004 0.097250000000000017 51.500000000000007 0.63333333333333341 0.099250000000000019 0.088750000000000009 1.0000000180025095e-35 36.999893841109568 0.086250000000000007 37.500000000000007
decision_type=2 2 2 2 2 2 2 2 2 2 2 2 2 2 2 2 2 2 2 2 2 2 2 2 2 2 2 2 2 2
left_child=1 3 10 14 18 6 -6 29 17 16 -2 -7 19 27 20 -16 -10 -3 23 26 -1 -14 -23 -5 25 -19 -12 -11 -15 -4
right_child=2 8 7 4 5 11 -8 -9 9 13 12 -13 21 28 15 -17 -18 24 -20 -21 -22 22 -24 -25 -26 -27 -28 -29 -30 -31
leaf_value=-0.047797647991376868 0.045527007030885136 -0.06632200723807738 0.080162131725330071 -0.020085625660283338 -0.039162897726032396 -0.0098155253627909504 -0.063306746658961729 0.091112547616005152 0.019628118685419728 -0.0018676965955407986 0.0024320813512433339 -0.046002396181397121 0.027774110062995485 -0.085042951518993326 0.10000000000000001 -0.078338872685395147 0.072493175912481986 -0.018019383235636784 -0.063718988405093477 -0.045466696220059805 -0.082054577243458299 0.0035058151758654518 -0.060138685394324404 0.016368462670304711 -0.04929400681834626 0.049272768769132815 0.045165125489297617 0.034707903953504142 -0.02031779666759264 0.062253515096790502
leaf_weight=16.49840880651027 126.63624582160264 10.084980281069873 71.380491925403476 23.882435490377247 137.54728397075087 51.39261332526803 438.48435213137418 369.63765293546021 71.863037077710032 39.224729181267321 9.5100043257698399 39.89408004283905 14.244026398286222 3.4498400632292023 2.2812126576900473 4.4724642718210816 8.073829919099806 10.807197061367338 5.6772189466282716 2.78329799696803 189.67627096362412 15.722631032578649 6.6500235712155691 21.542342917993665 7.7782015362754455 5.2332090102136126 50.135132808238268 14.231031626462935 32.205931141041219 73.755423472262919
leaf_count=224 895 161 327 271 1698 529 6186 1448 633 386 97 499 110 57 7 70 45 124 79 41 3178 142 90 180 112 41 350 115 356 425
internal_value=1.9145e-09 -0.0458162 0.0701856 -0.056315 -0.0500741 -0.0531762 -0.0575416 0.0854593 0.00236315 0.00868843 0.0353468 -0.0256299 0.0223308 -0.00591471 -0.0773717 -0.0181007 0.0249676 -0.0291756 -0.00956568 0.0346147 -0.0793133 0.00138768 -0.0154118 -0.00279756 -0.0134476 0.00393479 0.0383516 0.00786949 -0.0265802 0.0710613
internal_weight=1874.76 1134.3 740.455 931.349 718.42 667.318 576.032 514.774 202.952 169.048 225.681 91.2867 99.0451 89.1115 212.928 6.75368 79.9369 33.9036 51.102 62.4284 206.175 36.6167 22.3727 45.4248 23.8186 16.0404 59.6451 53.4558 35.6558 145.136
internal_count=18876 14951 3925 12921 9442 8912 7884 2200 2030 1592 1725 1028 830 914 3479 77 678 438 530 488 3402 342 232 451 277 165 447 501 413 752
is_linear=0
shrinkage=0.05


Tree=1
num_leaves=31
num_cat=0
split_feature=1 1 1 9 1 9 17 0 15 9 16 2 16 1 2 17 16 9 2 0 2 16 3 16 3 16 0 2 16 1
split_gain=5639.15 696.019 467.485 156.34 126.346 95.5327 86.067 88.6507 67.7851 60.027 54.6341 52.8947 50.2332 44.6822 52.4382 43.6753 38.5774 37.6725 47.1416 34.2897 33.0101 31.7388 30.0303 29.7379 29.1423 29.8757 27.4405 25.9911 24.8722 23.3921
threshold=0.045352994565042375 1.0000000180025095e-35 0.075545783357356774 1.0000000180025095e-35 0.13070207944000517 1.0000000180025095e-35 1.5000000000000002 4.2229145474742564 13.500000000000002 0.55000000000000016 0.083750000000000019 0.028708791208791214 0.031250000000000007 0.05824869350707252 0.08248299319727892 1.5000000000000002 0.082250000000000018 0.70833333333333337 0.099019607843137278 22.570510405579263 0.15075757575757578 0.060250000000000005 0.33122362869198313 0.085750000000000007 0.37617924528301894 0.043250000000000004 20.665281761372338 0.093386627906976757 0.14325000000000002 0.022896632357340355
decision_type=2 2 2 2 2 2 2 2 2 2 2 2 2 2 2 2 2 2 2 2 2 2 2 2 2 2 2 2 2 2
left_child=1 3 13 24 11 20 8 9 21 -8 17 -4 -6 14 15 -2 -10 18 -7 -15 28 -5 -17 -12 25 -1 -25 -9 29 -3
right_child=2 5 4 6 12 10 7 27 16 -11 23 -13 -14 19 -16 22 -18 -19 -20 -21 -22 -23 -24 26 -26 -27 -28 -29 -30 -31
leaf_value=-0.036247274258805813 0.029465844417063125 -0.094713761922393946 0.033938725708740076 -0.06622818919498337 -0.011335007350209593 -0.0057554502172999927 -0.061743343283258048 -0.027895238283973348 -0.021006356668821016 -0.042514919630949867 -0.062124399396416043 0.061082126561966855 0.081321218558423017 0.019385852219603997 0.054121162245999471 -0.016458886584204309 -0.047292161625484594 0.026050903697011629 0.052060630281030397 0.046046363003365676 0.064982484038828475 0.030543497515635204 0.015340193867357202 -0.019773289247810313 -0.027212949155893743 -0.074097041621827869 0.0033800240799840629 0.016839482375930793 0.033542595097517718 -0.040124184615692227
leaf_weight=57.128189511597157 186.35637490823865 23.002374174073339 236.32753456756473 9.6990728303790075 14.8527295589447 311.9134262278676 764.04424068611115 284.63756766822189 342.82848225720227 865.83973941672593 26.53060045465827 746.18951135873795 966.35029396414757 183.98505350574851 80.248106732964516 156.75499708857387 235.44245152082294 253.98603195697069 39.750275500118732 350.10587234422565 7.3516031950712195 67.022982776165009 141.05538477096707 248.18816214799881 40.760489458218217 596.51513534039259 264.1879266910255 36.650354847311974 9.9087697118520719 133.61875365301967
leaf_count=217 254 121 266 18 13 619 3087 853 1022 3141 82 735 860 256 103 308 801 421 52 445 11 110 235 636 163 2992 560 75 22 398
internal_value=-4.37094e-12 -0.0348824 0.0526159 -0.0471494 0.0672275 -0.004173 -0.0415323 -0.0467968 -0.0258497 -0.0515287 0.00107295 0.0545532 0.0799187 0.0264959 0.0166864 0.0104818 -0.0317086 0.0113775 0.000779785 0.0368623 -0.0387039 0.0183098 -0.00139752 -0.0105078 -0.0682311 -0.070789 -0.00783513 -0.0227922 -0.0432812 -0.0481416
internal_weight=7681.23 4619.01 3062.23 3300.57 1963.72 1318.44 2606.16 1951.17 654.993 1629.88 1144.56 982.517 981.203 1098.51 564.415 484.167 578.271 605.65 351.664 534.091 173.882 76.7221 297.81 538.907 694.404 653.643 512.376 321.288 166.53 156.621
internal_count=18876 15401 3475 12479 1874 2922 9107 7156 1951 6228 2370 1001 873 1601 900 797 1823 1092 671 701 552 128 543 1278 3372 3209 1196 928 541 519
is_linear=0
shrinkage=0.05


Tree=2
num_leaves=31
num_cat=0
split_feature=1 1 1 8 3 15 1 3 17 9 1 2 2 15 2 17 15 3 3 15 15 2 15 1 15 15 15 3 1 17
split_gain=4285.96 561.476 373.362 136.327 72.7168 62.0202 58.6925 45.3161 41.3571 40.3872 36.9377 33.2324 28.1191 27.6058 35.6956 24.9954 23.1063 22.9916 21.2245 24.6124 19.2867 16.6999 16.6707 23.304 16.5435 21.5035 16.3061 14.2333 13.987 13.9794
threshold=0.045352994565042375 0.022896632357340355 0.091794118887028542 1.0000000180025095e-35 0.35032467532467537 9.5000000000000018 0.065972584092967287 0.17047223663726002 2.5000000000000004 0.22500000000000003 0.18790011157881206 0.09699820788530468 0.099019607843137278 36.500000000000007 0.026491228070175444 3.5000000000000004 40.500000000000007 0.31198770491803285 0.37617924528301894 46.500000000000007 24.500000000000004 0.086688137412775104 73.500000000000014 0.028639529412802057 20.500000000000004 17.500000000000004 251.50000000000003 0.33122362869198313 0.051610336612862608 3.5000000000000004
decision_type=2 2 2 2 2 2 2 2 2 2 2 2 2 2 2 2 2 2 2 2 2 2 2 2 2 2 2 2 2 2
left_child=1 3 6 18 5 27 16 26 -7 12 -9 15 24 -8 17 -6 -2 -15 -1 -20 -13 22 -11 -24 25 -3 -4 -5 29 -18
right_child=2 9 7 4 11 8 13 10 -10 21 -12 20 -14 14 -16 -17 28 -19 19 -21 -22 -23 23 -25 -26 -27 -28 -29 -30 -31
leaf_value=-0.066759821722369314 0.029415943281413628 -0.043873361699349779 -0.014584438584820815 0.012073878198875683 -0.017024975107769305 -0.036681419257815547 0.055171951718030368 0.064201797113627654 -0.051163530706277632 -0.0010944324454251367 0.082253356360691601 0.0020129619643984545 0.041807574877395809 0.023572457219651094 0.043428590903710394 -0.065952753622998045 0.0034277773518693964 -0.03043289962833064 -0.044860605853860369 0.068673237792888406 0.07028450921361902 0.024843991985624057 -0.038606320173405054 0.027843983256317425 -0.03920986443562522 0.04285220917375486 0.05097581269195655 -0.038182118348792669 0.019599774258853633 -0.056239049247736719
leaf_weight=563.37431087484583 382.56661881133914 13.125273399055006 21.097703665494919 65.47944463789463 240.98714318871498 1180.9017664343119 247.39414831995964 873.96942078322172 846.24875855445862 638.05377399176359 419.36930891871452 35.090601125732064 14.951815150678156 62.093319766223431 230.15754534676671 29.273740585893393 117.54125707410276 28.870978303253651 43.339688830077648 5.3644151426851741 14.6691432967782 90.363551791757345 15.129373513162134 103.13984856382012 109.83611686900258 15.693627946078776 17.23009791970253 17.951010555028915 199.93336110003293 10.711200311779974
leaf_count=3307 613 49 26 134 774 4628 312 960 3680 1474 441 92 30 98 287 131 241 55 186 10 23 176 36 190 395 26 21 60 388 33
internal_value=2.52289e-10 -0.032248 0.0499354 -0.0429317 -0.0376207 -0.0409883 0.0306444 0.0684673 -0.0427271 0.000249443 0.0700551 -0.015411 -0.0233382 0.0426192 0.0329485 -0.0223247 0.021066 0.0064318 -0.0640222 -0.0323557 0.0221394 0.00452874 0.00210152 0.0193434 -0.0303631 0.00335394 0.0148879 0.00126073 0.0113325 -0.00155539
internal_weight=6653.91 4042.97 2610.93 3042.68 2430.6 2110.58 1279.27 1331.67 2027.15 1000.29 1293.34 320.021 153.607 568.516 321.122 270.261 710.752 90.9643 612.078 48.7041 49.7597 846.687 756.323 118.269 138.655 28.8189 38.3278 83.4305 328.186 128.252
internal_count=18876 15401 3475 13025 9522 8502 2027 1448 8308 2376 1401 1020 500 752 440 905 1275 153 3503 196 115 1876 1700 226 470 75 47 194 662 274
is_linear=0
shrinkage=0.05


Tree=3
num_leaves=31
num_cat=0
split_feature=0 2 3 3 8 17 9 2 0 0 9 17 0 2 8 12 2 17 15 2 17 17 0 3 12 3 0 3 15 0
split_gain=2424.55 232.101 174.122 84.1404 83.3773 67.7334 69.7725 67.3445 64.6714 59.5399 47.9898 47.5241 41.4534 52.9799 39.9024 45.341 39.7739 37.156 36.1667 32.671 30.4294 29.3039 25.0891 24.0141 22.2581 20.9604 20.6854 17.8111 15.4883 14.4857
threshold=16.705006398339091 0.069204980842911892 0.28496240601503764 0.50555555555555565 1.0000000180025095e-35 1.5000000000000002 0.55000000000000016 0.021858576206402299 22.348316465497021 1.0000000180025095e-35 0.45000000000000007 2.5000000000000004 53.051260353209635 0.11215932914046123 1.0000000180025095e-35 1.0000000180025095e-35 0.15894736842105264 1.5000000000000002 10.500000000000002 0.11882352941176472 2.5000000000000004 1.5000000000000002 49.95691387202789 0.26713615023474185 1.0000000180025095e-35 0.54631217838765023 14.440091488028404 0.2994252873563219 37.500000000000007 26.953553213755637
decision_type=2 2 2 2 2 2 2 2 2 2 2 2 2 2 2 2 2 2 2 2 2 2 2 2 2 2 2 2 2 2
left_child=2 3 4 7 23 14 16 10 -9 18 17 -12 13 25 27 -16 24 -2 -6 20 -8 -20 -10 -1 -7 29 -11 -4 -29 -3
right_child=1 12 5 -5 9 6 19 8 22 26 11 -13 -14 -15 15 -17 -18 -19 21 -21 -22 -23 -24 -25 -26 -27 -28 28 -30 -31
leaf_value=-0.06150613794886204 0.012421534077621922 0.013924335261731145 -0.077762675568469969 0.072185928675588443 0.0037958409860048615 -0.052967269047735882 0.0047113591741513011 -0.012565279252328405 0.025714708593608471 0.024661600343719961 0.032150065352296399 -0.00086793152960801343 0.071355569241013508 0.064239329744327042 0.02915072263522548 -0.010863425435314355 0.045109467535934131 -0.030933978918802792 -0.02454869462444521 0.037044732784185748 -0.024142109839197585 -0.040282710098499923 0.041330844336767827 -0.0209122101757345 -0.028571251493753998 0.087788740331523493 -0.034941447014265839 -0.028168305048618711 0.019489835182457491 0.038223516438810258
leaf_weight=378.52877398766577 90.76430150680244 82.004715517163277 13.278901400044559 87.927119880914688 58.642677627503872 181.36145023722202 156.0815632995218 84.496075749397278 556.78560044709593 58.892221082001925 260.07964525837451 187.58575502317399 279.33068277314305 282.11343154683709 171.56305057927966 120.53310233540833 14.114961467683314 108.48050001636147 399.29184492304921 37.021643657237291 220.42118403222412 1143.1681231427938 478.02634856197983 40.311937637627125 192.98145095724612 17.821355175226927 19.336404167115688 64.841736137866974 23.128824815154076 243.31298559345305
leaf_count=2394 256 176 87 123 132 815 434 217 1167 156 519 480 366 396 364 363 30 366 1423 71 773 5110 833 202 747 21 64 300 75 416
internal_value=-7.95257e-11 0.0345782 -0.0289637 0.0244483 -0.0376411 -0.0137321 -0.0220676 0.0220718 0.0294942 -0.0326634 0.0092292 0.0183145 0.0553418 0.0481876 0.00326297 0.0126389 -0.0372839 -0.0111837 -0.0347444 -0.00777371 -0.0121807 -0.0362097 0.0329285 -0.0575991 -0.0403906 0.0349906 0.00992903 -0.0237859 -0.0156382 0.0320983
internal_weight=6052.23 2758.73 3293.5 1854.15 2098.17 1195.33 801.982 1766.22 1119.31 1679.33 646.91 447.665 904.583 625.252 393.346 292.096 388.458 199.245 1601.1 413.524 376.503 1542.46 1034.81 418.841 374.343 343.139 78.2286 101.249 87.9706 325.318
internal_count=18876 5336 13540 3961 9481 4059 2870 3838 2217 6885 1621 999 1375 1009 1189 727 1592 622 6665 1278 1207 6533 2000 2596 1562 613 220 462 375 592
is_linear=0
shrinkage=0.05


Tree=4
num_leaves=31
num_cat=0
split_feature=1 1 1 8 1 16 15 0 3 15 16 1 0 16 8 16 2 16 16 1 15 12 16 1 9 0 1 16 16 16
split_gain=3069.49 357.412 313.074 70.6766 55.9346 50.8891 54.7325 46.3957 41.8333 38.8145 38.2595 35.9975 33.3651 32.7668 30.2323 29.5722 25.4947 25.37 27.4158 22.4631 21.81 19.5665 31.6191 21.9684 19.8525 19.0719 18.5909 24.4897 18.1207 17.9047
threshold=0.041752231815527958 0.086402819959383856 1.0000000180025095e-35 1.0000000180025095e-35 0.063214868209146041 0.082750000000000018 12.500000000000002 32.382224718966732 0.28653530377668313 55.500000000000007 0.082250000000000018 0.13070207944000517 35.597727239814319 0.08475000000000002 1.0000000180025095e-35 0.090750000000000011 0.038034960819770959 0.14325000000000002 0.14375000000000002 0.025716474517370899 30.500000000000004 1.0000000180025095e-35 0.10025000000000002 0.023803382394973354 0.36666666666666675 80.972471240187289 0.033466103055568422 0.080750000000000016 0.029250000000000002 0.062750000000000014
decision_type=2 2 2 2 2 2 2 2 2 2 2 2 2 2 2 2 2 2 2 2 2 2 2 2 2 2 2 2 2 2
left_child=2 4 3 17 13 6 -5 9 -8 -7 14 15 -9 -2 19 -3 20 28 -19 -4 -6 22 -12 -23 -25 -15 27 -16 -1 -21
right_child=1 11 10 5 16 7 8 12 -10 -11 21 -13 -14 25 26 -17 -18 18 -20 29 -22 23 -24 24 -26 -27 -28 -29 -30 -31
leaf_value=0.0033173189618168862 0.025752742026636535 0.062098633866437748 -0.087832235527474947 0.0083159299615340482 0.055598646710576877 -0.043628954806447108 -0.037423139663187305 0.043044690345244968 -0.013024892666354516 -0.072686772362671459 -0.0077475907219739758 0.07066057733017915 -0.027697540936952859 0.0070234603239663325 -0.0047176637595754134 0.037086052454653066 0.0472253572747574 0.095448882199459462 -0.042747949186581154 -0.067841778987045909 0.014150118549415794 -0.03684289901087142 -0.048870582350389616 -0.022081385042150434 0.011746464566165014 -0.048767292475864921 0.023881102518148845 0.045667004416425266 -0.060712895833573269 0.0095151815770666021
leaf_weight=11.322711508721111 374.41500729136169 326.26985302940011 12.854383561760185 91.827859511598945 40.716762863099575 640.25700586196035 789.44255557656288 21.262807130813599 225.98098144773394 140.06411485932767 96.353106062859297 668.71072645485401 77.125619733706117 332.88491906970739 200.94139422848821 185.27305891737342 279.93259175494313 5.4928469061851493 10.352756593376396 10.244689928367732 143.92216841503978 47.487167164683342 90.785842603072524 63.597764812409878 136.37475239671767 16.057168059051037 152.36744932457805 27.406571295112371 458.02851857338101 27.719106156378984
leaf_count=51 729 437 80 255 59 3015 3754 45 853 863 296 873 322 734 526 264 421 5 66 46 271 190 342 222 365 62 331 52 3250 97
internal_value=2.82475e-11 0.0435358 -0.0308936 -0.0399601 0.0241743 -0.0357805 -0.0286504 -0.0447651 -0.0319933 -0.0488447 -0.00502605 0.0630233 -0.0124094 0.0154794 0.00551987 0.0530395 0.0377127 -0.0570675 0.00515771 -0.0307035 0.0232904 -0.0154976 -0.0276974 -0.00627161 0.000988108 0.00445615 0.010355 0.00132956 -0.0591682 -0.0113599
internal_weight=5705.47 2368.18 3337.29 2471.16 1187.93 1985.96 1107.25 878.71 1015.42 780.321 866.132 1180.25 98.3884 723.357 431.534 511.543 464.572 485.197 15.8456 50.8182 184.639 434.599 187.139 247.46 199.973 348.942 380.715 228.348 469.351 37.9638
internal_count=18876 3850 15026 12479 2276 9107 4862 4245 4607 3878 2547 1574 367 1525 1132 701 751 3372 71 223 330 1415 638 777 587 796 909 578 3301 143
is_linear=0
shrinkage=0.05


Tree=5
num_leaves=31
num_cat=0
split_feature=0 2 3 8 3 16 16 16 16 16 16 16 2 3 9 9 17 9 8 0 3 0 0 0 17 3 17 12 0 3
split_gain=1595.45 177.431 132.539 83.873 69.2963 68.5423 59.4825 65.2557 52.5933 39.0876 38.3794 36.9773 34.7896 32.5132 27.3373 26.7518 25.9199 40.5867 25.9015 25.8856 24.9304 27.7851 23.5675 23.1367 22.5051 24.1362 21.8699 21.4685 21.4239 19.5288
threshold=16.705006398339091 0.035842754367934229 0.30461293743372225 1.0000000180025095e-35 0.35032467532467537 0.081250000000000017 0.092250000000000013 0.14325000000000002 0.094750000000000015 0.082250000000000018 0.080750000000000016 0.049250000000000009 0.097800095648015326 0.40161290322580651 0.55000000000000016 0.63333333333333341 2.5000000000000004 0.36666666666666675 1.0000000180025095e-35 65.134948457661679 0.52440476190476204 42.935133631767172 9.6705159784429622 23.425208492664357 2.5000000000000004 0.45049019607843144 1.5000000000000002 -1.0000000180025095e-35 21.603472791775772 0.23493100944081338
decision_type=2 2 2 2 2 2 2 2 2 2 2 2 2 2 2 2 2 2 2 2 2 2 2 2 2 2 2 2 2 2
left_child=2 9 3 -1 8 10 18 -8 19 15 11 -5 20 16 26 27 17 -11 22 -3 21 -6 -4 -15 25 -20 -7 -2 -14 -16
right_child=1 4 6 5 12 14 7 -9 -10 13 -12 -13 28 23 29 -17 -18 -19 24 -21 -22 -23 -24 -25 -26 -27 -28 -29 -30 -31
leaf_value=-0.05310769582129387 0.035762134698816346 0.030233905714592953 -0.040710618086614359 0.0016522567669438222 0.026974923875998355 -0.031752843430101013 -0.034160941965724459 0.048221083033262682 0.0060888398704152845 -0.018424362482350881 0.034838830539053921 -0.024951653316294686 0.018294105434761905 -0.017489117019839576 -0.042537310036150827 0.037899790878276128 -0.018009789980443502 0.020900180683340985 0.0085824726002491289 0.056038480866129704 0.072067109341996546 0.052724259488372019 0.039464176873914666 0.038146230866670308 -0.0096264650270622629 0.05236851635723902 -0.059929171159996547 -6.8038380182788193e-05 0.06680173675034394 -0.018363982947717041
leaf_weight=380.46005215495825 62.197892598807812 355.10229628160596 55.687744063325226 154.13898067362607 250.4857940711081 102.97795893996954 260.38128474727273 26.482522338628769 186.50922557990998 100.66303724050522 31.868039170280099 855.73628698289394 24.644520618021488 23.09141643345356 161.14059376530349 199.62933049444109 157.35417089052498 188.44766416586936 276.75627590436488 133.80729864537716 60.318435605615377 180.08819441869855 10.971906509250401 97.971556665375829 157.36815228126943 35.511376600712538 207.91464387718588 127.51869477424771 298.05344850569963 173.51356005389243
leaf_count=2817 140 746 324 565 526 454 1220 63 479 363 84 3750 51 55 832 392 530 438 765 231 93 293 31 193 565 70 1245 354 452 755
internal_value=-8.9698e-12 0.0297215 -0.0251462 -0.031901 0.0405171 -0.0271192 -0.00817813 -0.0265556 0.0286787 0.0129223 -0.0191862 -0.0208911 0.0503449 0.00455206 -0.039921 0.0251231 -0.00167981 0.0072081 0.00165198 0.0372962 0.041962 0.0377446 -0.0275142 0.0275344 0.00579179 0.0135619 -0.0505962 0.0116788 0.0630972 -0.0300038
internal_weight=5336.79 2445.88 2890.91 2067.75 1489.01 1687.29 823.159 286.864 675.419 956.874 1041.74 1009.88 813.59 567.528 645.547 389.346 446.465 289.111 536.295 488.91 490.892 430.574 66.6597 121.063 469.636 312.268 310.893 189.717 322.698 334.654
internal_count=18876 5336 13540 10502 2871 7685 3038 1283 1456 2465 4399 4315 1415 1579 3286 886 1331 801 1755 977 912 819 355 248 1400 835 1699 494 503 1587
is_linear=0
shrinkage=0.05


Tree=6
num_leaves=31
num_cat=0
split_feature=1 1 1 9 15 1 3 17 9 17 2 17 17 2 1 0 3 12 15 3 2 2 15 9 12 3 12 17 1 3
split_gain=2333.31 319.729 210.886 65.5655 48.9686 47.3613 33.6453 24.8297 22.7933 20.7983 18.2377 21.1974 17.3801 16.9765 14.966 24.6335 14.0849 12.7639 12.7986 12.4837 14.2206 12.0644 11.9028 11.5257 11.0937 11.6279 11.0876 11.0226 10.9237 11.3379
threshold=0.045668789826484868 0.023228189513191031 0.073861868916115112 1.0000000180025095e-35 12.500000000000002 0.12281569421977274 0.30461293743372225 1.5000000000000002 0.45000000000000007 3.5000000000000004 0.028708791208791214 3.5000000000000004 1.5000000000000002 0.09699820788530468 0.065972584092967287 87.656736410713265 0.12534153005464485 -1.4999999999999998 17.500000000000004 0.36882591093117417 0.056873315363881412 1.0000000180025095e-35 16.500000000000004 0.63333333333333341 1.0000000180025095e-35 0.37394067796610175 -5.4999999999999991 1.5000000000000002 0.061000155306392613 0.33122362869198313
decision_type=2 2 2 2 2 2 2 2 2 2 2 2 2 2 2 2 2 2 2 2 2 2 2 2 2 2 2 2 2 2
left_child=1 3 9 19 23 10 7 -6 12 14 21 -12 24 -8 15 16 -2 -14 -19 -1 -21 -4 -10 -5 25 -3 -24 -23 29 -11
right_child=2 8 5 4 6 -7 13 -9 22 28 11 -13 17 -15 -16 -17 -18 18 -20 20 -22 27 26 -25 -26 -27 -28 -29 -30 -31
leaf_value=-0.056091249603986842 0.074043468477998822 0.0023200270784228673 0.043855555663161606 -0.019131683026657562 -0.026811979227099682 0.064877485245698183 -0.025557079653991038 -0.042539809760211551 0.02812775970140027 -0.053287945769357276 0.053744437676203849 0.0154671701180086 -0.058902513072698198 0.0084503557946879696 0.03928073642728297 -0.051510609304744506 0.020698828655571423 -0.066658669553564198 -0.011686488867380581 -0.0092530911881973845 -0.075247598658803538 -0.022870912404764604 -0.035394169932484551 0.0066873325134058767 -0.01343613879421658 0.047750406825605635 0.0055363223686445868 0.025359363527735081 0.018977289235681545 0.0002247744456654419
leaf_weight=396.10011781798676 12.695383027195929 43.263209844008088 74.994370479136705 88.604637689888477 339.16812847740948 645.39599560014904 395.1928796749562 964.70782871404663 57.58669513836503 16.313512198626995 402.89947952330112 39.736635699868202 20.884327257052064 40.454469457268715 131.58289087563753 11.645432906225322 488.92651481181383 11.656604040414093 115.50211017206311 30.037842474877834 11.208900280296801 15.071458298712967 17.165153788402677 84.395460346713662 55.387560326606035 20.883506102487445 458.47276037931442 55.360473353415728 29.509272381663322 25.170309364795685
leaf_count=3283 19 138 133 302 1538 973 1772 5554 119 60 620 70 94 142 244 49 1045 48 405 153 73 35 51 234 209 49 1262 93 51 58
internal_value=5.50214e-11 -0.0266017 0.0429966 -0.0359 -0.0319061 0.0555252 -0.0344292 -0.0384486 0.000682937 0.0214088 0.0452611 0.0503082 -0.0112251 -0.0223991 0.0242367 0.0203799 0.0220489 -0.0226756 -0.0167258 -0.0533653 -0.0271873 0.0298992 0.00665853 -0.00653627 0.00295625 0.0171103 0.00405919 0.0150388 -0.00427718 -0.0208191
internal_weight=5099.97 3150.67 1949.3 2349.87 1912.52 1233.46 1739.52 1303.88 800.802 715.843 588.062 442.636 267.577 435.647 644.85 513.267 501.622 148.043 127.159 437.347 41.2467 145.426 533.225 173 119.534 64.1467 475.638 70.4319 70.9931 41.4838
internal_count=18876 15426 3450 13051 9542 1924 9006 7092 2375 1526 951 690 943 1914 1357 1113 1064 547 453 3509 226 261 1432 536 396 187 1313 128 169 118
is_linear=0
shrinkage=0.05


Tree=7
num_leaves=31
num_cat=0
split_feature=3 2 8 2 15 3 15 3 16 3 3 16 3 2 16 9 3 16 12 15 2 16 15 3 16 17 2 3 9 15
split_gain=604.193 129.321 108.844 92.1078 66.4546 57.6335 51.9937 51.6243 44.4417 42.5435 36.1944 34.1689 31.4252 27.1224 25.9487 23.4008 22.1002 21.9375 25.6643 21.1913 21.3934 20.0114 19.8176 18.7935 18.5915 17.8855 17.6859 18.8631 17.3755 16.8256
threshold=0.3246621621621622 0.078689370485036131 1.0000000180025095e-35 0.019355644355644359 72.500000000000014 0.50555555555555565 31.500000000000004 0.28024390243902447 0.081250000000000017 0.21235981865903128 0.36425061425061428 0.072750000000000009 0.2573593073593074 0.15655637254901963 0.097250000000000017 0.63333333333333341 0.073801742919389998 0.082750000000000018 -1.0000000180025095e-35 73.500000000000014 0.10840188014101058 0.14325000000000002 33.500000000000007 0.26043478260869574 0.14325000000000002 1.5000000000000002 0.03468323977546111 0.35032467532467537 0.63333333333333341 11.500000000000002
decision_type=2 2 2 2 2 2 2 2 2 2 2 2 2 2 2 2 2 2 2 2 2 2 2 2 2 2 2 2 2 2
left_child=2 5 12 9 7 6 21 13 -9 25 22 -11 -1 -5 19 -13 -6 -12 -19 20 -14 28 -3 -18 -16 -4 27 -8 -2 -27
right_child=1 10 3 4 16 -7 26 8 -10 11 17 15 14 -15 24 -17 23 18 -20 -21 -22 -23 -24 -25 -26 29 -28 -29 -30 -31
leaf_value=-0.045039158544947361 -0.008348182624749961 0.0033841412580546074 -0.016261757002737222 -0.016382086662188638 0.085097304400980622 0.051548867785199987 -0.0059552045606414373 0.023569873783574644 -0.0099600559493910005 0.0039234280851239379 0.061548438466514269 -0.033123227370559026 -0.020017095992500962 0.055503097880832311 -0.059698535677369935 -0.0089064660676599992 0.0091064373142436556 0.010858414365766964 0.048229014989948936 0.049078736047298392 0.066039095233580619 0.051157868936142395 0.044159174377830679 0.037786908137747717 0.027059010528268829 -0.0033929523442958556 0.031601417589373314 0.022121469877031591 0.0085404333932026753 -0.041188421741124241
leaf_weight=310.72490107826889 333.78916586749256 79.173222796991467 136.53594144526869 686.58124547079206 12.36417583376169 92.89036138728261 86.75249798130244 207.21514935884625 188.92745731864125 222.19085695967078 195.40536505356431 191.90090097580105 101.60123232612386 13.377352632582186 45.789349334314466 207.75223900843412 211.83434138633311 60.574333753436804 190.1879258453846 15.215014480054377 7.7745939046144477 19.228496849536896 47.783784793689847 78.205392718315125 7.1375838238745919 32.501929463818669 255.76580067910254 192.70696592330933 280.09268093109131 313.21761817205697
leaf_count=2476 1237 260 545 3075 17 189 314 565 704 852 348 992 607 27 348 877 721 153 370 35 16 45 97 177 31 88 592 516 836 1766
internal_value=-3.66723e-13 0.0225921 -0.0138562 -0.00964315 -0.00112012 0.0136427 0.0106289 -0.00684503 0.00757885 -0.0204388 0.0422862 -0.0117955 -0.0354512 -0.0150082 -0.0186687 -0.0205346 0.0196305 0.0489888 0.0392017 -0.00620913 -0.0139001 0.000930752 0.018731 0.0168397 -0.0479986 -0.0315839 0.0221008 0.0134056 -0.000642502 -0.0376352
internal_weight=4825.2 1834.35 2990.85 2502.6 1398.51 1261.23 1168.34 1096.1 396.143 1104.1 573.125 621.844 488.243 699.959 177.518 399.653 302.404 446.168 250.762 124.591 109.376 633.11 126.957 290.04 52.9269 482.255 535.225 279.459 613.882 345.72
internal_count=18876 4957 13919 10406 5286 3729 3540 4371 1269 5120 1228 2721 3513 3102 1037 1869 915 871 523 658 623 2118 357 898 379 2399 1422 830 2073 1854
is_linear=0
shrinkage=0.05


Tree=8
num_leaves=31
num_cat=0
split_feature=1 1 1 1 8 15 0 16 16 3 9 15 16 16 16 1 16 0 16 16 16 16 2 16 16 2 17 17 2 9
split_gain=1887.96 229.057 195.427 45.509 45.0711 35.8944 32.7336 27.6468 23.2154 22.2249 20.6066 18.3527 17.2206 16.3868 18.6359 15.4022 14.7568 16.6374 15.4104 14.2543 13.8091 13.6505 13.3259 13.1326 16.5133 12.8342 21.2871 12.7545 12.516 12.3146
threshold=0.041752231815527958 0.091794118887028542 1.0000000180025095e-35 0.061000155306392613 1.0000000180025095e-35 12.500000000000002 22.348316465497021 0.082750000000000018 0.082250000000000018 0.18038949833600396 0.70833333333333337 35.500000000000007 0.11925000000000001 0.093250000000000013 0.14325000000000002 0.18790011157881206 0.093750000000000014 87.656736410713265 0.10975000000000001 0.10775000000000001 0.029250000000000002 0.10375000000000001 0.035587639311043577 0.14325000000000002 0.14375000000000002 0.099019607843137278 1.5000000000000002 1.5000000000000002 0.079156223893066008 0.45000000000000007
decision_type=2 2 2 2 2 2 2 2 2 2 2 2 2 2 2 2 2 2 2 2 2 2 2 2 2 2 2 2 2 2
left_child=2 3 4 11 20 19 7 -7 10 -3 25 28 -8 29 -15 21 22 18 -18 27 -1 -11 -5 -22 -25 26 -4 -6 -2 -13
right_child=1 9 8 16 5 6 12 -9 -10 15 -12 13 -14 14 -16 -17 17 -19 -20 -21 23 -23 -24 24 -26 -27 -28 -29 -30 -31
leaf_value=0.010361916451151186 0.016432286623181049 0.015599235748737889 0.012063409681109792 0.027407359278221528 0.019983482197736564 -0.029894101719984623 -0.0088270988908722408 -0.044614684581173569 -0.013122272259606979 0.058488265248332665 0.020109288343132324 -0.0047897114046994739 -0.054820713205967465 -0.018402719699982025 0.061717979462498865 0.069223098291041618 0.011484180787102585 -0.030540006647941872 0.044736243403180317 -0.052195270986772818 -0.053292711868857062 0.039809564556685044 0.047778602967443434 0.086064743368667471 -0.038995791078835607 0.029866308700005992 -0.020895942681833025 -0.012915599470593323 0.04159453160335435 0.021044020953447613
leaf_weight=9.247082560323177 195.57703854702413 30.671048916876316 78.71021537669003 133.00022465549409 44.085177412256598 777.22613292839378 175.55023047048599 540.95686162845232 372.74298565089703 447.82676260173321 135.17634057067335 68.218275753781199 23.020035389810801 90.87129545584321 7.8877249062061301 252.87761960923672 78.453718554228544 14.192650802433489 62.68114060536027 15.829383557662366 352.85406778147444 125.14702429622412 202.5183717533946 3.7844107747077933 8.7254181727766973 24.413505658507347 129.73804953694344 88.804583543911576 66.131268050521612 142.47354364953935
leaf_count=51 445 57 263 283 94 4308 703 3503 1415 742 345 198 126 302 13 437 161 33 127 77 3250 212 373 5 66 54 470 296 130 337
internal_value=2.36279e-11 0.038155 -0.0263233 0.0226396 -0.0343104 -0.0307858 -0.0330843 -0.0359351 -0.00432689 0.0573926 0.00458093 0.0130445 -0.0141591 0.00480207 -0.0120036 0.0589448 0.0338047 0.0210629 0.0262522 -0.0073441 -0.0499806 0.0544085 0.0397034 -0.0515078 -0.0011631 -0.00443329 -0.00845047 -0.00200158 0.0227906 0.0126795
internal_weight=4699.39 1918.53 2780.86 1062.01 2040.08 1665.47 1516.75 1318.18 740.781 856.522 368.038 571.159 198.57 309.451 98.759 825.851 490.846 155.328 141.135 148.719 374.611 572.974 335.519 365.364 12.5098 232.862 208.448 132.89 261.708 210.692
internal_count=18876 3850 15026 2402 12479 9107 8640 7811 2547 1448 1132 1425 829 850 315 1391 977 321 288 467 3372 954 656 3321 71 787 733 390 575 535
is_linear=0
shrinkage=0.05


Tree=9
num_leaves=31
num_cat=0
split_feature=1 1 1 9 15 1 3 16 16 16 16 12 2 16 15 16 16 16 16 1 16 1 16 15 15 1 2 2 9 16
split_gain=1628.95 202.969 171.826 50.2613 37.6996 35.6707 29.1935 23.8546 19.9217 19.7548 16.5861 28.6092 23.077 16.5537 20.8857 15.7159 18.8057 15.7795 14.3433 15.0303 17.4098 14.2266 14.1238 12.9325 11.4553 11.9679 15.2222 14.09 11.4425 18.5389
threshold=0.041752231815527958 0.073861868916115112 0.023803382394973354 1.0000000180025095e-35 12.500000000000002 0.13070207944000517 0.22611077297626295 0.072750000000000009 0.082250000000000018 0.08925000000000001 0.08925000000000001 -1.0000000180025095e-35 0.058397271952259168 0.083750000000000019 37.500000000000007 0.14325000000000002 0.14375000000000002 0.029250000000000002 0.088750000000000009 0.058867006326763553 0.086750000000000008 0.024061212092104982 0.099750000000000019 109.50000000000001 12.500000000000002 0.063690866435888741 0.027587519025875192 0.13100686498855837 0.63333333333333341 0.053250000000000006
decision_type=2 2 2 2 2 2 2 2 2 2 2 2 2 2 2 2 2 2 2 2 2 2 2 2 2 2 2 2 2 2
left_child=2 9 3 15 28 13 7 -6 -8 18 -4 12 -12 -3 -15 17 -17 -1 19 20 -2 -13 -14 -23 -11 27 -27 -26 29 -5
right_child=1 5 10 4 6 -7 8 -9 -10 24 11 21 22 14 -16 16 -18 -19 -20 -21 -22 23 -24 -25 25 26 -28 -29 -30 -31
leaf_value=0.013126493268595227 0.01764898429469108 0.050861728561556879 0.0062738663982083234 0.037841030525839647 -0.028898980509362623 0.060959490314524495 -0.017159752900038776 -0.048423584518370699 -0.031819009429851774 0.059254764617518635 -0.062424627704593109 0.07895859729067789 0.039172957618524185 0.049663085736969759 0.021926437270144521 0.084625471748007608 -0.039059004391339303 -0.05206499474722362 0.076945716919360002 0.034036661534617228 -0.047391334427375115 -0.0079560019321455247 -0.045907159287598504 0.038219818738846868 -0.0024305556447925432 -0.013886472508470965 0.039287865769891406 0.060749691590849801 0.0084288125805463045 -0.027915774446255082
leaf_weight=9.5376971364021284 278.77385583147407 284.51153811439872 343.61605462990701 12.614757316187022 310.49217545520514 478.32428394630551 446.81961076008156 315.30381797580048 481.52858244162053 10.245679542422293 40.329023662954569 5.4457538425922385 11.558526508510115 117.94938765652478 159.85316908359528 4.7604317665100089 8.6713264249265176 346.49074430577457 12.266021549701689 168.3654862716794 10.683177482336758 146.87553098332137 8.4396393150091154 16.908946044743061 221.05829545296729 18.786875275895 47.458310101181269 9.1913496106863004 79.605240989476442 71.31381357088685
leaf_count=52 677 519 1073 29 1849 873 2221 2145 2833 19 181 9 29 225 307 7 70 3388 19 360 44 565 32 34 643 51 95 18 235 274
internal_value=-4.89343e-11 0.0364859 -0.0249264 -0.0315855 -0.027987 0.0509225 -0.0303898 -0.0387363 -0.0247634 0.0171467 -0.000678115 -0.0110843 -0.040648 0.0423847 0.0337029 -0.0483156 0.00477677 -0.0503186 0.0235875 0.0221579 0.0152485 -0.000545388 0.00326739 -0.00318886 0.00727597 0.00547979 0.0242078 9.15405e-05 -0.00515152 -0.0180323
internal_weight=4477.78 1817.47 2660.31 2087.14 1717.68 1040.64 1554.14 625.796 928.348 776.829 573.173 229.557 60.3272 562.314 277.803 369.46 13.4318 356.028 470.089 457.823 289.457 169.23 19.9982 163.784 306.741 296.495 66.2452 230.25 163.534 83.9286
internal_count=18876 3850 15026 13103 9586 1924 9048 3994 5054 1926 1923 850 242 1051 532 3517 77 3440 1100 1081 721 608 61 599 826 807 146 661 538 303
is_linear=0
shrinkage=0.05


Tree=10
num_leaves=31
num_cat=0
split_feature=1 1 1 8 17 12 0 15 9 9 1 15 1 3 12 17 17 12 1 0 15 1 12 3 17 15 12 3 15 3
split_gain=1416.44 182.758 147.247 37.5484 30.5766 40.6122 31.6373 31.6308 29.1309 28.7995 26.7077 23.5116 21.513 18.4036 16.2507 16.0021 12.9486 14.0284 11.8307 11.2628 11.0389 11.8106 10.1851 10.1617 9.76248 11.7358 9.66156 9.34416 9.42302 8.94983
threshold=0.045352994565042375 1.0000000180025095e-35 0.091794118887028542 1.0000000180025095e-35 1.5000000000000002 1.5000000000000002 31.58879123841356 42.500000000000007 0.55000000000000016 0.63333333333333341 0.065972584092967287 15.500000000000002 0.023803382394973354 0.18038949833600396 -1.0000000180025095e-35 1.5000000000000002 1.5000000000000002 -1.4999999999999998 0.14980080053688619 23.208753575706773 53.500000000000007 0.057079255705813091 -4.4999999999999991 0.30330086580086585 3.5000000000000004 44.500000000000007 1.5000000000000002 0.37617924528301894 46.500000000000007 0.20419135396093926
decision_type=2 2 2 2 2 2 2 2 2 2 2 2 2 2 2 2 2 2 2 2 2 2 2 2 2 2 2 2 2 2
left_child=1 3 10 27 5 14 8 -8 -6 12 15 -7 19 -4 -5 -2 22 -18 -15 23 29 -22 -14 -3 25 -12 -27 -1 -29 -17
right_child=2 9 13 4 6 11 7 -9 -10 -11 24 -13 16 18 -16 20 17 -19 -20 -21 21 -23 -24 -25 -26 26 -28 28 -30 -31
leaf_value=-0.048635964509422515 0.027523574122693819 -0.053001633734709341 0.01406213885443134 0.0043035536801410276 -0.043796426144444733 0.018036657875968413 0.025985826423679644 -0.028910272876380934 -0.026833594028805721 0.0074261271568669468 0.045140852822057875 -0.057156252388829334 0.046373181853429674 0.048784628304099492 -0.018383476096685124 0.05546385646484369 -0.046545756843514252 -0.0092230378438300006 0.061566080711394112 -0.078963674938453909 -0.020824878540876772 0.014242088952026674 0.00083289901639519923 -0.0099202061279212838 0.0098594099004580965 0.016398042087659673 0.043965145461895595 -0.029401940946204588 0.058139628796941213 0.012365908795747373
leaf_weight=304.16671211156063 174.27919399179518 22.87558976188302 28.754405438899994 152.03252228628844 462.3651484567672 12.127950321882961 44.961900968104601 63.018076429143548 559.23066036403179 384.78544122632593 171.41055884584785 72.800203457474709 13.536671482026575 381.68557311221957 164.16258203424513 12.792273595929144 29.032911907881498 189.5610915273428 344.41608343273401 12.900484308600424 54.408730854280293 42.977791903540492 132.00000179186463 34.078540991991758 39.175803378224373 94.111578701063991 47.991669280454516 22.747638024389747 3.5542884506285182 206.47830699197948
leaf_count=3209 392 140 57 597 3310 35 147 332 3367 1196 351 506 32 716 813 24 138 706 675 75 201 122 477 158 82 220 99 153 10 536
internal_value=-7.81686e-11 -0.0222187 0.0372508 -0.030879 -0.0275792 -0.0157204 -0.0317903 -0.00605203 -0.0345108 -0.00253272 0.022896 -0.0464185 -0.0113626 0.0532937 -0.00747513 0.0153556 -0.0064867 -0.0141801 0.0548473 -0.036779 0.0086587 -0.00534942 0.0050687 -0.0272238 0.0333922 0.0363328 0.0257081 -0.0461636 -0.0175721 0.0148802
internal_weight=4278.42 2679.94 1598.48 1861.17 1530.7 401.123 1129.58 107.98 1021.6 818.771 843.626 84.9282 433.985 754.856 316.195 490.936 364.131 218.594 726.102 69.8546 316.657 97.3865 145.537 56.9541 352.69 313.514 142.103 330.469 26.3019 219.271
internal_count=18876 15401 3475 12479 9107 1951 7156 479 6677 2922 2027 541 1726 1448 1410 1275 1353 844 1391 373 883 323 509 298 752 670 319 3372 163 560
is_linear=0
shrinkage=0.05


Tree=11
num_leaves=31
num_cat=0
split_feature=1 1 1 8 1 0 16 12 2 2 10 1 2 0 16 16 16 12 3 9 16 1 16 12 3 16 12 8 16 3
split_gain=1241.13 162.518 120.899 42.1912 26.7163 26.3899 26.0434 24.1388 15.7053 15.6987 15.1491 15.0159 13.531 13.2353 12.9613 14.8916 13.362 12.6981 11.4416 11.1241 12.75 19.5261 12.6341 22.6915 18.3874 10.7677 25.3091 10.9381 10.7266 10.1121
threshold=0.041752231815527958 0.088472836852420897 0.022896632357340355 1.0000000180025095e-35 0.063214868209146041 7.2503848277023577 0.082750000000000018 1.5000000000000002 0.026491228070175444 0.093386627906976757 1.0000000180025095e-35 0.13070207944000517 0.015686515748031499 31.755491819385956 0.14325000000000002 0.14375000000000002 0.043250000000000004 -2.4999999999999996 0.27602627257799678 0.77500000000000013 0.092750000000000013 0.039604799452861411 0.10425000000000001 -1.0000000180025095e-35 0.42724867724867727 0.10175000000000002 1.5000000000000002 1.0000000180025095e-35 0.06975000000000002 0.29442724458204339
decision_type=2 2 2 2 2 2 2 2 2 2 2 2 2 2 2 2 2 2 2 2 2 2 2 2 2 2 2 2 2 2
left_child=2 4 3 14 25 6 7 -5 12 17 -8 -3 -6 -11 16 -16 -1 -7 -14 -4 21 29 24 -24 -22 -2 27 -27 -23 -21
right_child=1 11 19 5 8 9 10 -9 -10 13 -12 -13 18 -15 15 -17 -18 -19 -20 20 22 28 23 -25 -26 26 -28 -29 -30 -31
leaf_value=-0.012982618524787376 0.016346861116928391 0.042770938254300041 -0.0071987879760881182 -0.017916236049804569 0.025814797897015608 0.0080554236961777447 0.02483993222259186 -0.039588613943740615 0.036267249650432147 -0.00026752348782228488 -0.03821827397076618 0.057078902834495272 0.0094708021328665654 0.068909387458915519 0.081886574513701793 -0.03448105332551548 -0.050024216594311513 -0.020832840832386575 -0.05317204210494654 0.0067955787859543234 -0.069493268370720979 0.0034877558596070933 -0.062744156984379879 0.025281438503396272 0.037816017338676039 -0.061879055987006271 0.030165799750165458 -0.0089958699626223569 -0.080922868050274419 0.036627487793402351
leaf_weight=26.604137791320682 417.28584028314799 325.38040775246918 365.49009196273983 613.77018003724515 61.321056697517633 46.446660063229501 9.7100837994366866 162.49867594987154 261.61688132956624 21.966521732509136 498.43543678009883 420.1629526913166 18.771850252524022 10.090472728013991 4.2015621364116651 7.9538054661825299 286.872143589193 210.15738067869097 11.916488600894807 50.620908318087459 15.794062764383854 7.8538065385073406 9.4953623078763467 31.975225895643234 5.342214658856391 11.225781753659247 45.604718897491693 75.8136194832623 7.2268037740141153 64.732211513444781
leaf_count=225 1100 651 1409 3399 150 184 29 1145 559 83 3611 873 50 21 7 70 3201 1050 42 160 73 20 47 90 12 58 123 244 27 163
internal_value=-1.30411e-13 0.0335546 -0.0225192 -0.0285344 0.0192967 -0.0251433 -0.0282134 -0.022453 0.0300183 -0.0114826 -0.0370133 0.0508344 0.0122504 0.0215071 -0.0449162 0.00574199 -0.0468806 -0.0156039 -0.0148538 -0.00207059 0.00763879 0.0165414 -0.0109087 0.00512655 -0.0423707 0.0124022 -7.14259e-06 -0.0158164 -0.0369628 0.0235362
internal_weight=4106.34 1649.1 2457.24 1898.71 903.556 1573.08 1284.41 776.269 353.626 288.661 508.146 745.543 92.0094 32.057 325.632 12.1554 313.476 256.604 30.6883 558.531 193.041 130.434 62.6069 41.4706 21.1363 549.93 132.644 87.0394 15.0806 115.353
internal_count=18876 3850 15026 13025 2326 9522 8184 4544 801 1338 3640 1524 242 104 3503 77 3426 1234 92 2001 592 370 222 137 85 1525 425 302 47 323
is_linear=0
shrinkage=0.05


Tree=12
num_leaves=31
num_cat=0
split_feature=1 1 1 8 15 0 3 16 16 9 15 0 16 0 15 16 16 3 15 1 16 16 16 16 9 16 0 15 16 3
split_gain=1090.66 184.092 89.7101 38.4491 30.3088 29.4362 17.5075 17.4616 18.1087 15.5195 18.0913 15.0089 20.0495 14.9026 13.814 16.9373 13.4328 12.2448 12.2098 15.1789 11.2915 13.2399 12.1353 11.0917 10.8306 12.8563 10.9443 9.83474 15.2824 10.647
threshold=0.050848831809104482 0.022896632357340355 0.10066453090237745 1.0000000180025095e-35 12.500000000000002 18.249079444211777 0.34248120300751889 0.082750000000000018 0.14325000000000002 0.63333333333333341 22.500000000000004 87.656736410713265 0.10575000000000001 22.348316465497021 12.500000000000002 0.061250000000000006 0.10775000000000001 0.1434624697336562 24.500000000000004 0.063214868209146041 0.14325000000000002 0.14375000000000002 0.043250000000000004 0.090250000000000011 0.45000000000000007 0.080750000000000016 22.787407527864811 35.500000000000007 0.066250000000000017 0.3465463108320252
decision_type=2 2 2 2 2 2 2 2 2 2 2 2 2 2 2 2 2 2 2 2 2 2 2 2 2 2 2 2 2 2
left_child=1 3 11 20 16 6 -6 14 9 10 -9 13 -13 27 15 -3 -5 -11 -15 -20 22 -22 -1 -7 25 -16 -26 29 -29 -2
right_child=2 7 -4 4 5 23 -8 8 -10 17 -12 12 -14 18 24 -17 -18 -19 19 -21 21 -23 -24 -25 26 -27 -28 28 -30 -31
leaf_value=-0.01284374131780191 0.040143233954352736 0.021805000038530389 0.051659220845170654 0.0026855828342442979 -0.031769074356365917 6.1491445665597753e-05 -0.012547385771856873 0.0078365067547197329 0.034952456318473206 0.057892111875828878 -0.027240601857278297 0.013272576501156897 -0.074046195342265295 0.054913117078328313 -0.0072185226355589369 -0.086331785218271201 -0.045338575205496556 -0.0013092661968038856 0.014522476673048311 0.036758547647294131 0.080184111454627102 -0.032856306403396859 -0.048413673504820127 -0.022653037165094092 0.0075955737830032503 0.043247624353234843 0.02810814702601357 0.029243909928935465 -0.010400952733097399 0.012418541090169787
leaf_weight=26.316794683225453 67.547420911490917 6.43725262582302 605.71609419770539 132.86176295951009 1013.4102528188378 126.86979279480875 134.14303943049163 48.898567076772451 25.25721351057291 9.1902281045913679 148.06416337378323 33.811910632997751 8.1606211885809881 54.934664221480489 114.13221262209117 8.2771017402410489 16.35307627171278 176.06282306089997 113.47789146751165 237.11160560883582 3.8925238847732526 7.7430930119007826 269.89794800360687 93.243385600857437 158.35141357406974 14.18875804543495 110.33418795838952 40.477341555990279 60.853913828730583 71.055665984749794
leaf_count=225 150 13 1298 446 7213 537 718 180 68 17 702 88 33 120 431 29 89 614 315 536 7 70 3201 519 490 38 269 98 178 184
internal_value=-4.10152e-11 -0.0184047 0.0376296 -0.0272447 -0.0239751 -0.0263096 -0.0295222 0.00128636 -0.00605152 -0.00876111 -0.0185323 0.0252676 -0.00370461 0.0271516 0.00854854 -0.039024 -0.00257758 0.00162766 0.0329955 0.0295612 -0.0433556 0.0049597 -0.0452535 -0.00956074 0.0103117 -0.00163836 0.0160189 0.0172745 0.00543541 0.02593
internal_weight=3937.07 2643.93 1293.15 1824.73 1516.88 1367.67 1147.55 819.194 407.473 382.216 196.963 687.431 41.9725 645.459 411.721 14.7144 149.215 185.253 405.524 350.589 307.85 11.6356 296.215 220.113 397.007 128.321 268.686 239.934 101.331 138.603
internal_count=18876 15876 3000 13025 9522 8987 7931 2851 1581 1513 882 1702 121 1581 1270 42 535 631 971 851 3503 77 3426 1056 1228 469 759 610 276 334
is_linear=0
shrinkage=0.05


end of trees

feature_importances:
Column_16=83
Column_1=60
Column_3=47
Column_15=42
Column_2=35
Column_0=33
Column_9=29
Column_17=29
Column_12=18
Column_8=13
Column_10=1

parameters:
[boosting: gbdt]
[objective: lambdarank]
[metric: ndcg]
[tree_learner: serial]
[device_type: cpu]
[data_sample_strategy: bagging]
[data: ]
[valid: ]
[num_iterations: 300]
[learning_rate: 0.05]
[num_leaves: 31]
[num_threads: 0]
[seed: 0]
[deterministic: 0]
[force_col_wise: 0]
[force_row_wise: 0]
[histogram_pool_size: -1]
[max_depth: 6]
[min_data_in_leaf: 20]
[min_sum_hessian_in_leaf: 0.001]
[bagging_fraction: 0.8]
[pos_bagging_fraction: 1]
[neg_bagging_fraction: 1]
[bagging_freq: 0]
[bagging_seed: 3]
[bagging_by_query: 0]
[feature_fraction: 0.8]
[feature_fraction_bynode: 1]
[feature_fraction_seed: 2]
[extra_trees: 0]
[extra_seed: 6]
[early_stopping_round: 0]
[early_stopping_min_delta: 0]
[first_metric_only: 0]
[max_delta_step: 0]
[lambda_l1: 0]
[lambda_l2: 0]
[linear_lambda: 0]
[min_gain_to_split: 0]
[drop_rate: 0.1]
[max_drop: 50]
[skip_drop: 0.5]
[xgboost_dart_mode: 0]
[uniform_drop: 0]
[drop_seed: 4]
[top_rate: 0.2]
[other_rate: 0.1]
[min_data_per_group: 100]
[max_cat_threshold: 32]
[cat_l2: 10]
[cat_smooth: 10]
[max_cat_to_onehot: 4]
[top_k: 20]
[monotone_constraints: ]
[monotone_constraints_method: basic]
[monotone_penalty: 0]
[feature_contri: ]
[forcedsplits_filename: ]
[refit_decay_rate: 0.9]
[cegb_tradeoff: 1]
[cegb_penalty_split: 0]
[cegb_penalty_feature_lazy: ]
[cegb_penalty_feature_coupled: ]
[path_smooth: 0]
[interaction_constraints: ]
[verbosity: 1]
[saved_feature_importance_type: 0]
[use_quantized_grad: 0]
[num_grad_quant_bins: 4]
[quant_train_renew_leaf: 0]
[stochastic_rounding: 1]
[linear_tree: 0]
[max_bin: 255]
[max_bin_by_feature: ]
[min_data_in_bin: 3]
[bin_construct_sample_cnt: 200000]
[data_random_seed: 1]
[is_enable_sparse: 1]
[enable_bundle: 1]
[use_missing: 1]
[zero_as_missing: 0]
[feature_pre_filter: 1]
[pre_partition: 0]
[two_round: 0]
[header: 0]
[label_column: ]
[weight_column: ]
[group_column: ]
[ignore_column: ]
[categorical_feature: ]
[forcedbins_filename: ]
[precise_float_parser: 0]
[parser_config_file: ]
[objective_seed: 5]
[num_class: 1]
[is_unbalance: 0]
[scale_pos_weight: 1]
[sigmoid: 1]
[boost_from_average: 1]
[reg_sqrt: 0]
[alpha: 0.9]
[fair_c: 1]
[poisson_max_delta_step: 0.7]
[tweedie_variance_power: 1.5]
[lambdarank_truncation_level: 30]
[lambdarank_norm: 1]
[label_gain: ]
[lambdarank_position_bias_regularization: 0]
[eval_at: ]
[multi_error_top_k: 1]
[auc_mu_weights: ]
[num_machines: 1]
[local_listen_port: 12400]
[time_out: 120]
[machine_list_filename: ]
[machines: ]
[gpu_platform_id: -1]
[gpu_device_id: -1]
[gpu_use_dp: 0]
[num_gpu: 1]

end of parameters

pandas_categorical:null
